20 27
0.415000 0.772000 0.944000 1.048000 1.087000 0.797000 0.654000 0.956000 0.792000 0.473000 0.288000 0.674000 0.879000 1.005000 1.067000 1.072000 1.017000 0.904000 0.702000 0.346000 0.170869 0.000180 0.000021 0.000003 0.000000 0.000000 -0.000000 1
0.431000 0.774000 0.947000 1.048000 1.087000 0.800000 0.638000 0.957000 0.793000 0.470000 0.291000 0.671000 0.882000 1.006000 1.072000 1.073000 1.022000 0.903000 0.697000 0.340000 0.170781 0.000189 0.000023 0.000003 0.000000 0.000000 -0.000000 1
0.419000 0.772000 0.946000 1.049000 1.082000 0.816000 0.676000 0.956000 0.793000 0.479000 0.296000 0.668000 0.885000 1.006000 1.066000 1.075000 1.032000 0.907000 0.712000 0.347000 0.169778 0.000168 0.000021 0.000002 0.000000 0.000000 -0.000000 1
0.419000 0.783000 0.966000 1.070000 0.763000 0.222000 0.807000 0.984000 0.813000 0.481000 0.308000 0.635000 0.782000 0.918000 0.972000 0.982000 0.920000 0.754000 0.643000 0.373000 0.198819 0.000434 0.000008 0.000012 0.000000 0.000000 0.000000 1
0.419000 0.782000 0.965000 1.071000 0.761000 0.224000 0.812000 0.983000 0.813000 0.480000 0.316000 0.633000 0.782000 0.918000 0.973000 0.981000 0.920000 0.754000 0.644000 0.372000 0.198879 0.000426 0.000008 0.000012 0.000000 0.000000 0.000000 1
0.393000 0.325000 0.439000 0.576000 0.628000 0.607000 0.710000 0.527000 0.284000 0.426000 0.383000 0.354000 0.602000 0.502000 0.576000 0.584000 0.512000 0.586000 0.393000 0.405000 0.286047 0.000039 0.000002 0.000011 0.000000 -0.000000 -0.000000 2
0.411000 0.318000 0.442000 0.579000 0.626000 0.593000 0.716000 0.529000 0.283000 0.418000 0.369000 0.366000 0.602000 0.500000 0.587000 0.576000 0.512000 0.603000 0.380000 0.408000 0.279745 0.000035 0.000003 0.000011 0.000000 -0.000000 0.000000 2
0.414000 0.324000 0.467000 0.596000 0.655000 0.614000 0.737000 0.537000 0.311000 0.444000 0.393000 0.371000 0.607000 0.518000 0.618000 0.619000 0.537000 0.615000 0.399000 0.416000 0.277701 0.000032 0.000002 0.000010 0.000000 -0.000000 0.000000 2
0.468000 0.372000 0.324000 0.478000 0.524000 0.517000 0.525000 0.273000 0.314000 0.375000 0.438000 0.086000 0.398000 0.541000 0.565000 0.588000 0.561000 0.458000 0.264000 0.353000 0.373574 0.001306 0.000028 0.000065 -0.000000 0.000001 0.000000 2
0.422000 0.356000 0.469000 0.622000 0.674000 0.653000 0.758000 0.553000 0.311000 0.447000 0.406000 0.387000 0.646000 0.548000 0.633000 0.630000 0.550000 0.651000 0.391000 0.424000 0.273514 0.000022 0.000003 0.000007 0.000000 -0.000000 -0.000000 2
0.150000 0.451000 0.690000 0.365000 0.000000 0.000000 0.294000 0.619000 0.468000 0.173000 0.107000 0.265000 0.323000 0.382000 0.537000 0.539000 0.384000 0.326000 0.276000 0.114000 0.448421 0.010308 0.000135 0.000057 0.000000 0.000006 -0.000000 3
0.158000 0.464000 0.707000 0.398000 0.000000 0.000000 0.315000 0.637000 0.492000 0.194000 0.121000 0.292000 0.348000 0.400000 0.552000 0.545000 0.388000 0.338000 0.286000 0.138000 0.429278 0.008246 0.000032 0.000030 0.000000 0.000003 0.000000 3
0.134000 0.406000 0.618000 0.346000 0.872000 0.874000 0.326000 0.556000 0.419000 0.155000 0.194000 0.384000 0.497000 0.547000 0.707000 0.716000 0.553000 0.504000 0.391000 0.213000 0.250465 0.000174 0.000003 0.000003 0.000000 -0.000000 -0.000000 3
0.143000 0.415000 0.485000 0.288000 0.026000 0.003000 0.268000 0.478000 0.453000 0.174000 0.105000 0.236000 0.242000 0.309000 0.475000 0.484000 0.321000 0.233000 0.231000 0.105000 0.551971 0.018379 0.000013 0.000047 0.000000 0.000006 -0.000000 3
0.122000 0.359000 0.415000 0.240000 0.732000 0.818000 0.227000 0.425000 0.379000 0.139000 0.154000 0.324000 0.397000 0.443000 0.618000 0.631000 0.456000 0.398000 0.335000 0.160000 0.296518 0.000071 0.000002 0.000004 -0.000000 -0.000000 -0.000000 3
0.083000 0.191000 0.305000 0.419000 0.476000 0.362000 0.454000 0.710000 0.979000 0.988000 0.134000 0.371000 0.601000 0.761000 0.727000 0.650000 0.669000 0.566000 0.359000 0.158000 0.248432 0.000931 0.008597 0.000097 0.000000 0.000003 -0.000000 4
0.062000 0.176000 0.287000 0.399000 0.245000 0.167000 0.232000 0.372000 0.622000 0.924000 0.114000 0.338000 0.494000 0.344000 0.433000 0.450000 0.361000 0.490000 0.349000 0.138000 0.418919 0.003180 0.041174 0.000158 0.000000 0.000007 0.000000 4
0.061000 0.163000 0.271000 0.382000 0.266000 0.162000 0.210000 0.351000 0.584000 1.002000 0.107000 0.313000 0.490000 0.353000 0.402000 0.476000 0.370000 0.483000 0.359000 0.134000 0.425757 0.003798 0.044291 0.000218 0.000001 0.000013 0.000000 4
0.083000 0.193000 0.304000 0.412000 0.245000 0.113000 0.130000 0.214000 0.370000 0.595000 0.138000 0.361000 0.284000 0.202000 0.363000 0.377000 0.205000 0.258000 0.360000 0.147000 0.611826 0.005006 0.147092 0.009719 -0.000367 0.000688 -0.000006 4
0.832000 0.672000 0.435000 0.275000 0.158000 0.121000 0.185000 0.293000 0.186000 0.074000 0.118000 0.327000 0.505000 0.286000 0.310000 0.366000 0.313000 0.517000 0.366000 0.143000 0.466444 0.001450 0.062786 0.002250 0.000027 0.000086 -0.000004 4
